{
    "model_data": {
        "model": "SimpleRNN",
        "input_size": 1,
        "skip": 1,
        "output_size": 1,
        "unit_type": "GRU",
        "num_layers": 1,
        "hidden_size": 10,
        "bias_fl": true
    },
    "state_dict": {
        "rec.weight_ih_l0": [
            [
                0.30654817819595337
            ],
            [
                -0.19500692188739777
            ],
            [
                0.1597656011581421
            ],
            [
                -0.1743803322315216
            ],
            [
                1.3988609313964844
            ],
            [
                1.3741873502731323
            ],
            [
                -0.1309572160243988
            ],
            [
                -0.047732409089803696
            ],
            [
                -0.30179980397224426
            ],
            [
                0.16541501879692078
            ],
            [
                0.8041552901268005
            ],
            [
                -0.1137119010090828
            ],
            [
                0.4554058015346527
            ],
            [
                0.15932737290859222
            ],
            [
                0.38133472204208374
            ],
            [
                0.431893527507782
            ],
            [
                -0.21025732159614563
            ],
            [
                -0.231275737285614
            ],
            [
                -0.255441278219223
            ],
            [
                0.15860234200954437
            ],
            [
                -1.0698211193084717
            ],
            [
                1.1864323616027832
            ],
            [
                0.5304141044616699
            ],
            [
                -1.6981266736984253
            ],
            [
                -3.353034734725952
            ],
            [
                4.619985103607178
            ],
            [
                2.849062442779541
            ],
            [
                0.4554048776626587
            ],
            [
                1.5043845176696777
            ],
            [
                0.04888956621289253
            ]
        ],
        "rec.weight_hh_l0": [
            [
                0.14557383954524994,
                0.9736509323120117,
                0.16404704749584198,
                -0.47463104128837585,
                0.7363985180854797,
                -0.16046039760112762,
                -0.05711222067475319,
                0.2052529752254486,
                -0.8801459074020386,
                0.30584660172462463
            ],
            [
                -0.3975788950920105,
                -1.0432785749435425,
                0.2522382140159607,
                -0.05841423571109772,
                0.6414584517478943,
                0.08726301044225693,
                -0.5209463834762573,
                -0.4653317928314209,
                -0.10839106887578964,
                -0.04389220476150513
            ],
            [
                -0.23914068937301636,
                0.0633869469165802,
                -0.41059422492980957,
                0.18645797669887543,
                0.03234226629137993,
                0.17201507091522217,
                0.05552529916167259,
                0.23546618223190308,
                0.1307384967803955,
                0.4925130009651184
            ],
            [
                0.7183061242103577,
                -0.25935351848602295,
                -0.888830304145813,
                0.49079060554504395,
                -0.19695614278316498,
                -0.3921765983104706,
                0.045490484684705734,
                0.12840591371059418,
                0.403754860162735,
                -0.8589608669281006
            ],
            [
                0.7891836762428284,
                -0.7919211387634277,
                0.10433903336524963,
                -0.25897184014320374,
                -0.055698223412036896,
                0.713133692741394,
                -0.07313425838947296,
                -0.022239787504076958,
                -0.772229790687561,
                -0.3460410535335541
            ],
            [
                0.8601552248001099,
                -1.7550885677337646,
                0.4299960434436798,
                -0.4974798262119293,
                -0.27785158157348633,
                0.4475807547569275,
                0.16235636174678802,
                -0.4201942980289459,
                0.2013220489025116,
                -0.10863713175058365
            ],
            [
                -0.8146868348121643,
                0.014685950241982937,
                -1.0060534477233887,
                -0.06014292687177658,
                -0.13497836887836456,
                1.128897786140442,
                -0.44662922620773315,
                0.4861584007740021,
                -0.006062686443328857,
                0.42034557461738586
            ],
            [
                0.5860266089439392,
                -0.22615014016628265,
                -0.2644749879837036,
                -0.14281050860881805,
                -0.14809077978134155,
                -0.22898903489112854,
                0.6539024114608765,
                0.11202748864889145,
                0.5487704873085022,
                -0.6934111714363098
            ],
            [
                -0.7055084705352783,
                0.4805038869380951,
                -0.10722914338111877,
                1.0433800220489502,
                0.7312474250793457,
                -1.3122872114181519,
                -0.9885918498039246,
                -0.2191624790430069,
                -1.0033528804779053,
                0.3567779064178467
            ],
            [
                -0.8530080318450928,
                1.1464256048202515,
                -0.5464320182800293,
                0.13381363451480865,
                0.7415063381195068,
                0.10267885029315948,
                -0.29687172174453735,
                -1.9447637796401978,
                -0.1274792104959488,
                0.5149199366569519
            ],
            [
                -0.11413408815860748,
                -0.7634099125862122,
                -0.3820323050022125,
                0.1601082682609558,
                -0.8207840323448181,
                0.9058390855789185,
                0.12817421555519104,
                0.4526507258415222,
                -0.7016708254814148,
                0.1190481185913086
            ],
            [
                -0.1731564849615097,
                -0.8055306077003479,
                -0.2882506251335144,
                1.9314895868301392,
                0.32259029150009155,
                0.27440476417541504,
                -0.08259792625904083,
                0.3554233908653259,
                0.906796932220459,
                2.032892942428589
            ],
            [
                -0.16044437885284424,
                -0.22000962495803833,
                -0.22252610325813293,
                0.2880932092666626,
                -0.08602122962474823,
                0.4169645607471466,
                -0.6202190518379211,
                -0.026970144361257553,
                -0.8941946625709534,
                0.3571226894855499
            ],
            [
                -0.018830321729183197,
                0.5543691515922546,
                -0.2972555160522461,
                0.020476631820201874,
                -0.8115851283073425,
                -0.5461572408676147,
                -0.02509782649576664,
                0.9014665484428406,
                0.2693467438220978,
                0.5074304938316345
            ],
            [
                0.1295548677444458,
                1.175313115119934,
                0.32602229714393616,
                0.10174872726202011,
                0.8316423892974854,
                -0.356762170791626,
                0.3405665159225464,
                -0.881832480430603,
                -0.03317592665553093,
                -1.7768373489379883
            ],
            [
                0.8200997114181519,
                0.3425898849964142,
                0.8390096426010132,
                0.012479058466851711,
                1.104063630104065,
                -0.2885023057460785,
                0.45388150215148926,
                -1.2533234357833862,
                0.2995292842388153,
                -1.433295726776123
            ],
            [
                1.1042817831039429,
                0.2632739841938019,
                1.180672287940979,
                -0.025128168985247612,
                1.6361513137817383,
                -0.7843466997146606,
                -0.11984701454639435,
                -1.3961803913116455,
                0.6936541795730591,
                -0.6463487148284912
            ],
            [
                -0.3007469177246094,
                0.18342836201190948,
                0.20415323972702026,
                0.07600873708724976,
                0.14903798699378967,
                0.10135840624570847,
                0.211289644241333,
                0.3736517131328583,
                0.3586924970149994,
                -0.0905575156211853
            ],
            [
                0.8125036954879761,
                0.6292216181755066,
                -0.014522870071232319,
                -0.9413043856620789,
                0.006720133125782013,
                -0.47621116042137146,
                0.3693562150001526,
                -1.1560934782028198,
                -0.33723849058151245,
                -1.5652285814285278
            ],
            [
                0.21168546378612518,
                -0.46572211384773254,
                -0.12797045707702637,
                -0.2778080999851227,
                -0.5031835436820984,
                0.47728124260902405,
                -0.31459739804267883,
                -0.04034809023141861,
                0.5882593989372253,
                0.18853183090686798
            ],
            [
                0.48289498686790466,
                -0.3053332269191742,
                -0.2625840902328491,
                0.16017495095729828,
                0.7257031798362732,
                -0.7824597954750061,
                0.605617105960846,
                0.08858222514390945,
                -0.025230450555682182,
                0.10670509189367294
            ],
            [
                0.3593078851699829,
                0.8062260746955872,
                0.25664010643959045,
                -0.46170493960380554,
                0.22393855452537537,
                0.9083776473999023,
                0.23531486093997955,
                0.31838810443878174,
                0.25035855174064636,
                -0.21221216022968292
            ],
            [
                -1.3292734622955322,
                0.39136090874671936,
                0.33960485458374023,
                0.09489447623491287,
                0.16387271881103516,
                -0.10607876628637314,
                0.9995806813240051,
                -0.07882856577634811,
                0.7454288601875305,
                -0.40700963139533997
            ],
            [
                -1.2300406694412231,
                0.7622823715209961,
                0.13089391589164734,
                0.09678680449724197,
                0.9514670372009277,
                -1.3161720037460327,
                -0.747265100479126,
                0.5860305428504944,
                -0.21322421729564667,
                0.6019604206085205
            ],
            [
                -0.9545016288757324,
                1.3978908061981201,
                0.39917799830436707,
                -1.4870362281799316,
                -0.7536429762840271,
                0.9672471880912781,
                0.5612168312072754,
                -0.34546521306037903,
                0.42858150601387024,
                -0.1781211793422699
            ],
            [
                1.8526285886764526,
                -1.6961079835891724,
                -1.6154391765594482,
                0.9565721154212952,
                0.5520260334014893,
                0.3548857271671295,
                -0.324582040309906,
                -0.697018027305603,
                -0.12772931158542633,
                -0.8649340867996216
            ],
            [
                0.9491887092590332,
                -0.5236647129058838,
                -0.5825685858726501,
                -0.5345048308372498,
                -0.46283525228500366,
                1.4522144794464111,
                0.9385956525802612,
                -0.7505438327789307,
                0.38145163655281067,
                -0.12009255588054657
            ],
            [
                -0.8903512954711914,
                -0.027673128992319107,
                -0.4581979513168335,
                0.04677232354879379,
                0.08252251893281937,
                0.43603092432022095,
                0.5420868396759033,
                0.779606819152832,
                1.070457935333252,
                0.6378178596496582
            ],
            [
                -0.02452981099486351,
                -0.8986255526542664,
                -0.543026328086853,
                -0.5189223885536194,
                -0.580932080745697,
                2.443131685256958,
                0.9123243093490601,
                -0.31439539790153503,
                0.5680183172225952,
                -0.058694176375865936
            ],
            [
                -0.4983629584312439,
                -0.4736977517604828,
                -0.4365200996398926,
                0.3021789789199829,
                -0.9630892276763916,
                1.4969404935836792,
                0.800248384475708,
                0.46480071544647217,
                0.7023472189903259,
                0.019641287624835968
            ]
        ],
        "rec.bias_ih_l0": [
            0.24976734817028046,
            -0.1721169352531433,
            0.4934115707874298,
            0.5691938996315002,
            0.5511588454246521,
            0.6188297271728516,
            0.5123977065086365,
            0.1541900485754013,
            0.5982849597930908,
            0.401129812002182,
            1.0854777097702026,
            0.8927803635597229,
            1.4681758880615234,
            -0.5047820806503296,
            -0.9453777074813843,
            -0.7416121363639832,
            -0.23733672499656677,
            1.5680774450302124,
            -0.4458082318305969,
            -0.24344173073768616,
            -0.11452988535165787,
            0.27251335978507996,
            -0.07216648012399673,
            0.2521725594997406,
            0.5891982913017273,
            -0.5945079326629639,
            -0.22319558262825012,
            -0.11450620740652084,
            0.001246523461304605,
            0.18978893756866455
        ],
        "rec.bias_hh_l0": [
            -0.10132483392953873,
            0.21441179513931274,
            0.40647658705711365,
            0.4863645136356354,
            0.5507298111915588,
            0.5429596900939941,
            0.5318695306777954,
            0.34480276703834534,
            0.576147735118866,
            0.43123066425323486,
            1.2934565544128418,
            0.9314491748809814,
            1.481025218963623,
            -0.5047470331192017,
            -0.9258756637573242,
            -0.7441802620887756,
            -0.24484306573867798,
            1.3620754480361938,
            -0.48188936710357666,
            -0.22594472765922546,
            0.14139673113822937,
            -0.1444932520389557,
            -0.11538597196340561,
            0.07554608583450317,
            0.012510443106293678,
            0.3950271010398865,
            0.25353875756263733,
            -0.046555038541555405,
            -0.013678504154086113,
            0.17151451110839844
        ],
        "lin.weight": [
            [
                -0.510603129863739,
                -0.23378971219062805,
                -0.33205342292785645,
                -0.5379354357719421,
                1.627302885055542,
                -1.4410433769226074,
                -0.9137794971466064,
                -0.34268882870674133,
                -0.8706537485122681,
                0.9255557656288147
            ]
        ],
        "lin.bias": [
            -0.2535604238510132
        ]
    }
}