{
    "model_data": {
        "model": "SimpleRNN",
        "input_size": 1,
        "skip": 1,
        "output_size": 1,
        "unit_type": "GRU",
        "num_layers": 1,
        "hidden_size": 10,
        "bias_fl": true
    },
    "state_dict": {
        "rec.weight_ih_l0": [
            [
                -1.2526352405548096
            ],
            [
                0.22173985838890076
            ],
            [
                -0.30602261424064636
            ],
            [
                0.15492939949035645
            ],
            [
                -0.5435974597930908
            ],
            [
                -0.36210396885871887
            ],
            [
                -0.620956301689148
            ],
            [
                0.1538556069135666
            ],
            [
                -0.5824017524719238
            ],
            [
                0.6060198545455933
            ],
            [
                0.3092691898345947
            ],
            [
                -0.8300432562828064
            ],
            [
                0.11643806099891663
            ],
            [
                -0.03166155144572258
            ],
            [
                0.028855446726083755
            ],
            [
                -0.0010815542191267014
            ],
            [
                -0.07414095103740692
            ],
            [
                0.8567532300949097
            ],
            [
                -0.12530739605426788
            ],
            [
                -0.1522945612668991
            ],
            [
                2.182013988494873
            ],
            [
                0.44964727759361267
            ],
            [
                -1.3454961776733398
            ],
            [
                -0.20543701946735382
            ],
            [
                -2.568183660507202
            ],
            [
                -1.5877071619033813
            ],
            [
                4.2951860427856445
            ],
            [
                0.1675596684217453
            ],
            [
                0.24030408263206482
            ],
            [
                -0.5311070084571838
            ]
        ],
        "rec.weight_hh_l0": [
            [
                -0.6479347348213196,
                0.6785751581192017,
                0.8958611488342285,
                0.4735288619995117,
                0.3621785640716553,
                0.22347651422023773,
                -1.1884559392929077,
                -0.8633808493614197,
                -0.3886392414569855,
                0.5168646574020386
            ],
            [
                -0.19974076747894287,
                0.3313608169555664,
                1.324690580368042,
                0.24266664683818817,
                -0.26721397042274475,
                -0.021850069984793663,
                -0.3792482316493988,
                0.00302038062363863,
                -0.489963561296463,
                0.49116867780685425
            ],
            [
                -0.45729994773864746,
                0.22127020359039307,
                1.0998468399047852,
                0.16591858863830566,
                0.24080006778240204,
                -0.08884888887405396,
                -0.4541395604610443,
                0.06853339821100235,
                -0.4170440137386322,
                -0.34174689650535583
            ],
            [
                -0.3428972065448761,
                0.0929032638669014,
                -0.49438053369522095,
                0.10315676778554916,
                0.21646049618721008,
                0.2764241397380829,
                0.9145383834838867,
                -0.5557992458343506,
                -0.4157516658306122,
                -0.2728320062160492
            ],
            [
                0.23426955938339233,
                0.9282245635986328,
                -0.14727097749710083,
                1.3767507076263428,
                0.2555438280105591,
                -1.081613302230835,
                0.19648262858390808,
                1.1383240222930908,
                1.1203784942626953,
                0.4475514888763428
            ],
            [
                -0.2596697211265564,
                0.9354745745658875,
                -1.8714821338653564,
                -0.10115140676498413,
                0.6786131262779236,
                0.20527850091457367,
                0.248508483171463,
                0.2606763243675232,
                -0.791597843170166,
                -0.7053504586219788
            ],
            [
                0.06580526381731033,
                -0.6946924924850464,
                0.7348569631576538,
                -0.40316450595855713,
                -0.3190857768058777,
                -0.03969984129071236,
                0.7602632641792297,
                -0.5290275812149048,
                -0.20973582565784454,
                0.8555758595466614
            ],
            [
                -0.0085697490721941,
                0.6954695582389832,
                0.24450474977493286,
                0.4939717948436737,
                -0.15604308247566223,
                -0.37292420864105225,
                -0.2299879789352417,
                0.5883240699768066,
                0.08852919191122055,
                -0.20703400671482086
            ],
            [
                -1.1535521745681763,
                0.19293425977230072,
                0.11380098015069962,
                1.0934503078460693,
                0.05863195285201073,
                0.40896153450012207,
                0.13913336396217346,
                0.11120820045471191,
                -0.15823835134506226,
                -0.8194457292556763
            ],
            [
                0.12969394028186798,
                -0.36644941568374634,
                0.3998021185398102,
                0.28457316756248474,
                0.964607834815979,
                0.45356127619743347,
                -0.25121644139289856,
                0.21583454310894012,
                -0.01935097947716713,
                0.3901263177394867
            ],
            [
                0.17249226570129395,
                -2.3882904052734375,
                0.8962589502334595,
                -0.399308443069458,
                0.4369683563709259,
                0.2614615559577942,
                -0.33717063069343567,
                -1.0960630178451538,
                -0.593084990978241,
                1.3975690603256226
            ],
            [
                -1.018946886062622,
                -0.9579683542251587,
                0.023255646228790283,
                0.7622658014297485,
                -0.24375629425048828,
                -2.8526580333709717,
                1.6399065256118774,
                0.5761479139328003,
                0.4731244146823883,
                -1.223522663116455
            ],
            [
                0.36304277181625366,
                0.9751671552658081,
                -0.2911181151866913,
                0.3963804244995117,
                0.5163557529449463,
                0.31255224347114563,
                0.4897545576095581,
                1.4021731615066528,
                0.12302526086568832,
                0.0640077069401741
            ],
            [
                -0.6854285597801208,
                0.23676688969135284,
                0.540673553943634,
                -0.054467763751745224,
                0.8086400628089905,
                0.18796102702617645,
                -0.737732470035553,
                0.31721705198287964,
                -0.9695268869400024,
                -0.5291367769241333
            ],
            [
                1.9310708045959473,
                -1.613324522972107,
                0.1960773766040802,
                0.08895991742610931,
                -1.573189377784729,
                -0.2815190553665161,
                -0.14260068535804749,
                -0.41199731826782227,
                1.4610310792922974,
                1.4100979566574097
            ],
            [
                0.30192217230796814,
                -0.7146239876747131,
                0.24235162138938904,
                -0.13198357820510864,
                -0.28435590863227844,
                0.11687532067298889,
                -0.13919687271118164,
                -0.23613625764846802,
                0.3009592890739441,
                0.5463995337486267
            ],
            [
                0.47753581404685974,
                -1.752483606338501,
                0.8521272540092468,
                -0.4173855185508728,
                0.16466353833675385,
                0.42642560601234436,
                0.035017918795347214,
                -0.8698329329490662,
                -0.24482004344463348,
                1.1490815877914429
            ],
            [
                -0.7460907697677612,
                0.490917444229126,
                0.40428829193115234,
                0.44025105237960815,
                0.4315359890460968,
                -1.3463270664215088,
                1.3884621858596802,
                0.7286205291748047,
                0.1401830017566681,
                -0.7409020662307739
            ],
            [
                -0.3777206838130951,
                -0.782606840133667,
                0.2721240818500519,
                0.2656291723251343,
                -0.2498905211687088,
                0.314529687166214,
                -0.554624617099762,
                -0.6579292416572571,
                0.27244457602500916,
                0.7885264754295349
            ],
            [
                -0.028981944546103477,
                0.5362736582756042,
                0.11215462535619736,
                0.08598776161670685,
                0.3500399589538574,
                0.37024274468421936,
                -0.5851406455039978,
                0.30905959010124207,
                0.09214679896831512,
                0.0065300194546580315
            ],
            [
                0.6723513007164001,
                -0.6126748919487,
                0.0553952232003212,
                -0.3949114978313446,
                -0.508680522441864,
                -0.1277613490819931,
                1.5452165603637695,
                1.2501095533370972,
                0.6101229786872864,
                -0.07645297050476074
            ],
            [
                0.06287342309951782,
                0.7983021140098572,
                -0.5980823636054993,
                -0.15530170500278473,
                -1.3578124046325684,
                -0.9462766647338867,
                1.3700495958328247,
                1.1175503730773926,
                0.4026564359664917,
                0.16584213078022003
            ],
            [
                0.041558343917131424,
                -0.027037255465984344,
                0.6794288754463196,
                -0.11968383938074112,
                -0.33389151096343994,
                0.10753476619720459,
                -0.6594293713569641,
                -0.23474790155887604,
                0.1589178442955017,
                0.5207262635231018
            ],
            [
                -0.2880937457084656,
                0.048004940152168274,
                -0.6205828189849854,
                -0.07460084557533264,
                0.13980627059936523,
                0.10675221681594849,
                0.30754557251930237,
                -0.7471708655357361,
                -0.36495429277420044,
                -0.21219393610954285
            ],
            [
                -0.3513787090778351,
                0.07725072652101517,
                0.39202436804771423,
                0.47817525267601013,
                0.6280316114425659,
                -0.05808832123875618,
                -1.3294464349746704,
                -0.08040635287761688,
                -0.47447094321250916,
                0.038578908890485764
            ],
            [
                -0.13411206007003784,
                -0.394383043050766,
                -0.3613353371620178,
                0.03738358989357948,
                0.2677951455116272,
                0.5017759203910828,
                -1.4106436967849731,
                -0.2708538770675659,
                -0.6242126822471619,
                0.030869537964463234
            ],
            [
                -0.30343446135520935,
                -1.0134323835372925,
                0.8258846402168274,
                -0.13222664594650269,
                0.27048900723457336,
                1.2846040725708008,
                -0.3610362112522125,
                1.1257418394088745,
                0.5406447052955627,
                -0.934131920337677
            ],
            [
                0.11445815861225128,
                0.009580102749168873,
                0.36899706721305847,
                0.014211169444024563,
                0.5692199468612671,
                0.27513420581817627,
                0.4439048767089844,
                0.8438612222671509,
                -0.34401899576187134,
                -0.49247515201568604
            ],
            [
                0.4400014281272888,
                -0.7470276355743408,
                -0.11993438005447388,
                0.11703342199325562,
                -1.0035855770111084,
                -0.19231416285037994,
                0.9138652682304382,
                0.7066655158996582,
                0.535733163356781,
                -0.4003564119338989
            ],
            [
                0.6694997549057007,
                -0.4981628656387329,
                0.008890155702829361,
                0.11592088639736176,
                -0.6624678373336792,
                -0.2709941864013672,
                0.8350031971931458,
                -0.800828754901886,
                0.21842296421527863,
                0.38377296924591064
            ]
        ],
        "rec.bias_ih_l0": [
            0.4574340581893921,
            0.6753517985343933,
            0.6577293276786804,
            -0.3276255130767822,
            -0.12562967836856842,
            -0.24122194945812225,
            0.883972704410553,
            0.45029935240745544,
            0.412650465965271,
            0.8705494999885559,
            -0.5086837410926819,
            1.1719859838485718,
            0.49173131585121155,
            0.8943626284599304,
            0.3262052834033966,
            -0.7508994936943054,
            -0.9202666282653809,
            0.8957973122596741,
            -0.4884699583053589,
            -0.666103720664978,
            0.13239027559757233,
            0.0666053518652916,
            0.2407386302947998,
            0.1089579239487648,
            -0.05260099843144417,
            -0.17070533335208893,
            0.19170476496219635,
            -0.13854224979877472,
            -0.12471663951873779,
            0.2715316712856293
        ],
        "rec.bias_hh_l0": [
            0.1308676302433014,
            0.38334596157073975,
            0.385619193315506,
            0.14979268610477448,
            -0.15505361557006836,
            0.028686949983239174,
            0.8124572038650513,
            0.41078272461891174,
            0.5024822950363159,
            0.6931935548782349,
            -0.5185754895210266,
            1.1482118368148804,
            0.3988969922065735,
            0.8971334099769592,
            0.3821781277656555,
            -0.7601450085639954,
            -0.9269835352897644,
            0.9893283843994141,
            -0.43902263045310974,
            -0.6402512788772583,
            -0.3308928310871124,
            0.09003061056137085,
            0.1066550463438034,
            0.33742591738700867,
            -0.1390051245689392,
            -0.02286885865032673,
            -0.29029738903045654,
            0.16143329441547394,
            0.41515329480171204,
            -0.18095222115516663
        ],
        "lin.weight": [
            [
                -0.8178152441978455,
                0.12317397445440292,
                -0.41761428117752075,
                0.5273186564445496,
                1.0357335805892944,
                0.17953315377235413,
                -0.7587079405784607,
                0.12821702659130096,
                0.023011134937405586,
                0.940102756023407
            ]
        ],
        "lin.bias": [
            -0.19532398879528046
        ]
    }
}